<?xml version="1.0"?>
<opencv_storage>
<stage3>
  <maxWeakCount>27</maxWeakCount>
  <stageThreshold>-7.3364388942718506e-01</stageThreshold>
  <weakClassifiers>
    <_>
      <internalNodes>
        0 -1 59652 -1.0017976164817810e-03</internalNodes>
      <leafValues>
        6.1031907796859741e-01 8.1499590305611491e-04</leafValues></_>
    <_>
      <internalNodes>
        0 -1 50752 1.0016623884439468e-02</internalNodes>
      <leafValues>
        -1.1071719229221344e-01 4.7022068500518799e-01</leafValues></_>
    <_>
      <internalNodes>
        0 -1 35930 1.3434693217277527e-02</internalNodes>
      <leafValues>
        1.1173190921545029e-01 -5.7026237249374390e-01</leafValues></_>
    <_>
      <internalNodes>
        0 -1 12959 1.3553968165069818e-03</internalNodes>
      <leafValues>
        -1.7559300363063812e-01 3.0612224340438843e-01</leafValues></_>
    <_>
      <internalNodes>
        0 -1 55726 -2.2226101718842983e-03</internalNodes>
      <leafValues>
        -8.1339114904403687e-01 3.7877533584833145e-02</leafValues></_>
    <_>
      <internalNodes>
        0 -1 61362 2.4598879739642143e-02</internalNodes>
      <leafValues>
        -1.5496322512626648e-01 3.6183032393455505e-01</leafValues></_>
    <_>
      <internalNodes>
        0 -1 60213 -1.9838716834783554e-02</internalNodes>
      <leafValues>
        2.6288321614265442e-01 -2.4402824044227600e-01</leafValues></_>
    <_>
      <internalNodes>
        0 -1 41032 -3.4113032743334770e-03</internalNodes>
      <leafValues>
        2.5832980871200562e-01 -1.8495896458625793e-01</leafValues></_>
    <_>
      <internalNodes>
        0 -1 51424 8.2765985280275345e-03</internalNodes>
      <leafValues>
        -1.1819159984588623e-01 4.8840916156768799e-01</leafValues></_>
    <_>
      <internalNodes>
        0 -1 55726 6.3680706080049276e-04</internalNodes>
      <leafValues>
        1.3525924086570740e-01 -4.0580090880393982e-01</leafValues></_>
    <_>
      <internalNodes>
        0 -1 18829 2.5625666603446007e-03</internalNodes>
      <leafValues>
        9.7614817321300507e-02 -5.1373410224914551e-01</leafValues></_>
    <_>
      <internalNodes>
        0 -1 69651 -2.1572127006947994e-03</internalNodes>
      <leafValues>
        3.1305223703384399e-01 -1.7409025132656097e-01</leafValues></_>
    <_>
      <internalNodes>
        0 -1 18315 -8.3887606160715222e-04</internalNodes>
      <leafValues>
        2.8667294979095459e-01 -1.5621483325958252e-01</leafValues></_>
    <_>
      <internalNodes>
        0 -1 70609 -4.4670654460787773e-03</internalNodes>
      <leafValues>
        3.1448453664779663e-01 -1.5414349734783173e-01</leafValues></_>
    <_>
      <internalNodes>
        0 -1 18790 3.9837323129177094e-03</internalNodes>
      <leafValues>
        8.2916654646396637e-02 -6.3558739423751831e-01</leafValues></_>
    <_>
      <internalNodes>
        0 -1 69302 -1.3778358697891235e-02</internalNodes>
      <leafValues>
        4.1949555277824402e-01 -1.0690408200025558e-01</leafValues></_>
    <_>
      <internalNodes>
        0 -1 73845 -1.2827692553400993e-03</internalNodes>
      <leafValues>
        2.5145950913429260e-01 -1.7266163229942322e-01</leafValues></_>
    <_>
      <internalNodes>
        0 -1 69402 4.2183985933661461e-03</internalNodes>
      <leafValues>
        6.6589571535587311e-02 -6.2954509258270264e-01</leafValues></_>
    <_>
      <internalNodes>
        0 -1 45801 2.6528434827923775e-03</internalNodes>
      <leafValues>
        -1.7248533666133881e-01 2.6629716157913208e-01</leafValues></_>
    <_>
      <internalNodes>
        0 -1 18936 5.6742280721664429e-02</internalNodes>
      <leafValues>
        -1.0927297174930573e-01 3.7991812825202942e-01</leafValues></_>
    <_>
      <internalNodes>
        0 -1 31174 -1.1474611237645149e-03</internalNodes>
      <leafValues>
        2.9424878954887390e-01 -1.7446824908256531e-01</leafValues></_>
    <_>
      <internalNodes>
        0 -1 66571 3.8255786057561636e-03</internalNodes>
      <leafValues>
        8.0139830708503723e-02 -5.6074684858322144e-01</leafValues></_>
    <_>
      <internalNodes>
        0 -1 74118 -8.0088106915354729e-04</internalNodes>
      <leafValues>
        3.0599430203437805e-01 -1.5810611844062805e-01</leafValues></_>
    <_>
      <internalNodes>
        0 -1 59764 -3.8752644322812557e-03</internalNodes>
      <leafValues>
        3.2056969404220581e-01 -1.5948563814163208e-01</leafValues></_>
    <_>
      <internalNodes>
        0 -1 76419 -1.1631504166871309e-03</internalNodes>
      <leafValues>
        2.3494298756122589e-01 -2.0593084394931793e-01</leafValues></_>
    <_>
      <internalNodes>
        0 -1 26141 -2.4697219487279654e-03</internalNodes>
      <leafValues>
        -6.0244947671890259e-01 7.9572595655918121e-02</leafValues></_>
    <_>
      <internalNodes>
        0 -1 19983 -1.3997760834172368e-03</internalNodes>
      <leafValues>
        2.6429876685142517e-01 -1.6775640845298767e-01</leafValues></_></weakClassifiers></stage3>
</opencv_storage>
